{
  "test": "wls",
  "method": "lm",
  "dataset": "iris",
  "formula": "Sepal.Length ~ Sepal.Width + Petal.Length + Petal.Width + Species",
  "n": 229,
  "k": 4,
  "df_residual": 224,
  "df_model": 4,
  "variable_names": ["Intercept", "Sepal.Width", "Petal.Length", "Petal.Width", "Species"],
  "coefficients": [3.4066523744197461, 0.2036206732227831, -0.29263705683384567, 0.67752719206200041, 1.1501401241589679],
  "std_errors": [0.46684526372337987, 0.077251467303327756, 0.10514679931225869, 0.23747972306722573, 0.36061267551157183],
  "t_stats": [7.297176686017087, 2.6358162547679109, -2.7831285283804941, 2.8529896502793464, 3.1894057038548569],
  "p_values": [5.0494792212678172e-12, 0.0089802678838355326, 0.0058434364038180619, 0.0047365449786324733, 0.0016296028063621864],
  "r_squared": 0.55051952548528316,
  "adj_r_squared": 0.54249308844037758,
  "f_statistic": 68.588281750081791,
  "f_p_value": 7.9540965645019681e-38,
  "mse": 0.099984695369408044,
  "rmse": 0.31620356634517588,
  "mae": 0.21217753825438704,
  "residual_std_error": 0.31620356634517588,
  "log_likelihood": -58.745709343352175,
  "aic": 129.49141868670435,
  "bic": 150.0937507080298,
  "conf_int_lower": [2.4866819805877305, 0.051388084993604644, -0.49984049208341297, 0.20954704674617181, 0.43951283308341493],
  "conf_int_upper": [4.3266227682517613, 0.35585326145196156, -0.085433621584278335, 1.1455073373778291, 1.860767415234521],
  "fitted_values": [4.9952784137034598, 4.8934680770920291, 4.963455917420073, 4.8845664387309728, 5.0633548023879964, 5.1244410043548232, 5.0041800520645783, 4.9456526406978085, 4.8731060097698098, 4.8168137195247782, 5.0067388426646389, 4.9163889350144236, 4.825715357885886, 4.9135064749360406, 5.1556161616816238, 5.2847787523329774, 5.2414958270883636, 5.0630311329096704, 5.0363262178263462, 5.0948536291931159, 4.8871252293310388, 5.1422442810770397, 5.1326953037592871, 4.8349406657253162, 4.9660147080200856, 5.1174508176371312, 4.8168137195247782, 4.9227317827754717, 4.9456526406978085, 5.0922948385930553, 4.8479500307257348, 4.963455917420025, 5.0922948385930553, 5.1422442810770397, 4.9978372043035311, 4.9341922117366401, 5.0067388426646389, 4.9545542790589163, 5.9316626788183076, 5.9994153980245084, 5.9205259193354616, 5.7391787650783863, 5.9472308344187859, 5.8409891016897699, 6.0875301845529854, 5.9074471429826811, 5.8320874633286621, 6.0172186747467249, 5.7344236994824316, 6.0830599423095091, 5.8705764768514772, 6.0172186747467249, 5.9284565492616021, 6.0830599423095091, 5.8705764768514772, 6.0172186747467249, 5.9376818571010332, 5.8705764768514772, 5.9809647823456471, 5.9583675939016318, 5.8209507038458153, 5.9421132532186656, 5.8835858418518949, 6.1457339264414328, 6.0197774653467846, 6.0172186747467249, 5.9262214281398649, 5.8091666054063245, 5.9790533307022313, 6.0172186747467249, 5.9017516341782779, 5.9695043533844778, 5.8114017265280626, 5.949465955540524, 5.9376818571010332, 5.9491422860622016, 5.8498907400508777, 5.9402406477010938, 5.8406654322114475, 5.9491422860622016, 5.9402406477010938, 5.8406654322114475, 5.9084181514176484, 5.956456142258217, 6.0108758269856768, 5.8887034230520161, 5.8887034230520161, 6.0108758269856768, 5.9971802769027702, 5.8887034230520161, 5.956456142258217, 5.8887034230520161, 5.8209507038458153, 5.8887034230520161, 5.956456142258217, 6.0108758269856768, 5.8887034230520161, 5.8887034230520161, 5.956456142258217, 5.8887034230520161, 5.8887034230520161, 5.8209507038458153, 5.8209507038458153, 5.8209507038458153, 5.8209507038458153, 5.8209507038458153, 5.8209507038458153, 5.8209507038458153, 5.8209507038458153, 5.8209507038458153, 5.8209507038458153, 5.8209507038458153, 5.8209507038458153, 5.8209507038458153, 5.8209507038458153, 5.8209507038458153, 5.8209507038458153, 6.0108758269856768, 5.956456142258217, 5.8390776500463542, 5.8594397173686312, 5.917967128735401, 5.8594397173686312, 5.8594397173686312, 5.8594397173686312, 5.8594397173686312, 5.8594397173686312, 5.8091666054063245, 6.0108758269856768, 6.0786285461918776, 5.956456142258217, 5.9446720438187253, 5.8616748384903694, 6.0786285461918776, 5.9446720438187253, 5.8616748384903694, 5.8209507038458153, 5.8209507038458153, 5.8209507038458153, 5.8209507038458153, 5.8209507038458153, 5.8209507038458153, 5.8209507038458153, 5.8209507038458153, 5.8209507038458153, 5.9294275576965694, 5.8887034230520161, 5.8616748384903694, 5.8209507038458153, 5.8209507038458153, 5.8209507038458153, 5.8209507038458153, 5.8209507038458153, 5.8616748384903694, 5.8616748384903694, 5.8005886365235391, 5.8005886365235391, 5.8616748384903694, 5.8005886365235391, 5.8413127711680923, 5.8616748384903694, 5.8209507038458153, 5.8209507038458153, 5.8005886365235391, 5.8005886365235391, 5.8616748384903694, 5.8005886365235391, 5.8413127711680923, 6.0172186747467249, 5.8769193246125253, 5.9294275576965694, 6.0108758269856768, 5.8616748384903694, 5.8209507038458153, 5.8209507038458153, 5.8209507038458153, 5.8209507038458153, 5.8209507038458153, 5.8209507038458153, 5.8209507038458153, 5.8209507038458153, 5.8209507038458153, 5.8209507038458153, 5.8209507038458153, 5.8209507038458153, 5.8209507038458153, 5.8209507038458153, 5.8209507038458153, 5.8209507038458153, 5.8209507038458153, 5.8209507038458153, 5.8209507038458153, 5.8209507038458153, 5.8209507038458153, 5.8209507038458153, 5.8209507038458153, 5.8209507038458153, 5.8209507038458153, 5.8209507038458153, 5.8209507038458153, 6.0108758269856768, 5.956456142258217, 5.956456142258217, 5.9176434592570786, 6.0108758269856768, 5.956456142258217, 5.956456142258217, 6.0108758269856768, 5.956456142258217, 5.9971802769027702, 5.956456142258217, 6.0786285461918776, 5.956456142258217, 6.0786285461918776, 5.9971802769027702, 6.0786285461918776, 6.0786285461918776, 5.9971802769027702, 6.0786285461918776, 5.9971802769027702, 6.0786285461918776, 6.0786285461918776, 5.7751089880011417, 5.8336363993679115, 5.8336363993679115, 5.9214275164180661, 5.9214275164180661, 5.9214275164180661, 5.7751089880011417],
  "residuals": [0.10472158629653976, 0.0065319229079716067, -0.26345591742007285, -0.28456643873097354, -0.063354802387996179, 0.27555899564517694, -0.40418005206457885, 0.054347359302191339, -0.47310600976980932, 0.083186280475222543, 0.39326115733536154, -0.11638893501442382, -0.025715357885886265, -0.61350647493604094, 0.64438383831837598, 0.41522124766702306, 0.15850417291163718, 0.036968867090328796, 0.66367378217365403, 0.0051463708068835035, 0.51287477066896159, -0.042244281077040147, -0.5326953037592872, 0.16505933427468347, 0.23398529197991488, 0.38254918236286928, 0.083186280475222543, -0.52273178277547117, 0.15434735930219098, -0.092294838593055747, -0.3479500307257346, -0.56345591742002443, -0.092294838593055747, -0.042244281077040147, 0.10216279569646897, -0.33419221173664043, 0.29326115733536101, 0.045445720941083345, 1.0683373211816922, 0.40058460197549234, 0.979474080664539, -0.23917876507838631, 0.55276916558121403, -0.14098910168976986, 0.21246981544701465, -1.0074471429826803, 0.76791253667133763, -0.41721867474672486, 0.065576300517568006, 0.21694005769049063, 0.22942352314852241, -0.41721867474672486, -0.12845654926160263, 0.21694005769049063, 0.22942352314852241, -0.41721867474672486, -0.13768185710103337, 0.42942352314852261, 0.41903521765435331, 0.6416324060983678, 0.97904929615418423, 0.25788674678133483, 0.21641415814810433, 0.25426607355856773, 0.68022253465321558, -0.41721867474672486, -0.42622142813986452, -0.30916660540632473, 0.72094666929776896, -0.61721867474672421, 0.79824836582172232, 0.73049564661552202, 0.38859827347193743, -0.34946595554052429, -0.13768185710103337, -0.24914228606220135, 0.35010925994912201, -0.34024064770109386, -0.040665432211447777, -0.24914228606220135, -0.34024064770109386, -0.040665432211447777, -0.40841815141764815, 0.24354385774178339, -0.010875826985676719, -0.088703423052016353, -0.088703423052016353, -0.4108758269856771, 0.0028197230972297348, -0.088703423052016353, -0.15645614225821697, -0.088703423052016353, -0.020950703845815859, -0.088703423052016353, -0.15645614225821697, -0.010875826985676719, -0.088703423052016353, -0.088703423052016353, -0.15645614225821697, -0.088703423052016353, -0.088703423052016353, -0.020950703845815859, -0.020950703845815859, -0.020950703845815859, -0.020950703845815859, -0.020950703845815859, -0.020950703845815859, -0.020950703845815859, -0.020950703845815859, -0.020950703845815859, -0.020950703845815859, -0.020950703845815859, -0.020950703845815859, -0.020950703845815859, -0.020950703845815859, -0.020950703845815859, -0.020950703845815859, -0.010875826985676719, -0.15645614225821697, -0.33907765004635448, -0.059439717368631309, -0.31796712873540139, -0.059439717368631309, -0.059439717368631309, -0.059439717368631309, -0.25943971736863147, 0.340560282631369, -0.30916660540632473, -0.010875826985676719, -0.27862854619187744, -0.15645614225821697, -0.4446720438187256, -0.2616748384903696, -0.27862854619187744, -0.4446720438187256, -0.2616748384903696, -0.020950703845815859, -0.020950703845815859, -0.020950703845815859, -0.020950703845815859, -0.020950703845815859, -0.020950703845815859, -0.020950703845815859, -0.020950703845815859, -0.020950703845815859, 0.17057244230342986, -0.088703423052016353, -0.2616748384903696, -0.22095070384581605, -0.12095070384581552, -0.12095070384581552, -0.22095070384581605, -0.22095070384581605, -0.2616748384903696, -0.16167483849036909, -0.10058863652353889, 0.39941136347646111, -0.16167483849036909, -0.10058863652353889, 0.35868722883190779, -0.2616748384903696, -0.020950703845815859, -0.020950703845815859, -0.10058863652353889, 0.39941136347646111, -0.16167483849036909, -0.10058863652353889, 0.35868722883190779, -0.41721867474672486, -0.37691932461252509, 0.17057244230342986, -0.21087582698567689, -0.2616748384903696, -0.020950703845815859, -0.020950703845815859, -0.020950703845815859, -0.020950703845815859, -0.020950703845815859, -0.020950703845815859, -0.020950703845815859, -0.020950703845815859, -0.020950703845815859, -0.020950703845815859, -0.020950703845815859, -0.020950703845815859, -0.020950703845815859, -0.020950703845815859, -0.020950703845815859, -0.020950703845815859, -0.020950703845815859, -0.020950703845815859, -0.020950703845815859, -0.020950703845815859, -0.020950703845815859, -0.020950703845815859, -0.020950703845815859, -0.020950703845815859, -0.020950703845815859, -0.020950703845815859, -0.020950703845815859, -0.010875826985676719, -0.15645614225821697, -0.15645614225821697, -0.41764345925707852, -0.010875826985676719, -0.15645614225821697, -0.15645614225821697, -0.010875826985676719, -0.15645614225821697, 0.0028197230972297348, -0.15645614225821697, -0.07862854619187723, -0.15645614225821697, -0.07862854619187723, 0.0028197230972297348, -0.07862854619187723, -0.07862854619187723, 0.0028197230972297348, -0.07862854619187723, 0.0028197230972297348, -0.07862854619187723, -0.07862854619187723, 0.82489101199885828, 0.76636360063208853, 0.76636360063208853, 0.67857248358193356, 0.67857248358193356, 0.67857248358193356, 0.82489101199885828],
  "weights": [1, 1, 1, 1, 1, 1, 1, 1, 1, 1, 1, 1, 1, 1, 1, 1, 1, 1, 1, 1, 1, 1, 1, 1, 1, 1, 1, 1, 1, 1, 1, 1, 1, 1, 1, 1, 1, 1, 1, 1, 1, 1, 1, 1, 1, 1, 1, 1, 1, 1, 1, 1, 1, 1, 1, 1, 1, 1, 1, 1, 1, 1, 1, 1, 1, 1, 1, 1, 1, 1, 1, 1, 1, 1, 1, 1, 1, 1, 1, 1, 1, 1, 1, 1, 1, 1, 1, 1, 1, 1, 1, 1, 1, 1, 1, 1, 1, 1, 1, 1, 1, 1, 1, 1, 1, 1, 1, 1, 1, 1, 1, 1, 1, 1, 1, 1, 1, 1, 1, 1, 1, 1, 1, 1, 1, 1, 1, 1, 1, 1, 1, 1, 1, 1, 1, 1, 1, 1, 1, 1, 1, 1, 1, 1, 1, 1, 1, 1, 1, 1, 1, 1, 1, 1, 1, 1, 1, 1, 1, 1, 1, 1, 1, 1, 1, 1, 1, 1, 1, 1, 1, 1, 1, 1, 1, 1, 1, 1, 1, 1, 1, 1, 1, 1, 1, 1, 1, 1, 1, 1, 1, 1, 1, 1, 1, 1, 1, 1, 1, 1, 1, 1, 1, 1, 1, 1, 1, 1, 1, 1, 1, 1, 1, 1, 1, 1, 1, 1, 1, 1, 1, 1, 1, 1, 1, 1, 1, 1, 1]
}
