{
  "test": "wls",
  "method": "lm",
  "dataset": "mtcars",
  "formula": "mpg ~ cyl + disp + hp + drat + wt + qsec + vs + am + gear + carb",
  "n": 32,
  "k": 10,
  "df_residual": 21,
  "df_model": 10,
  "variable_names": ["Intercept", "cyl", "disp", "hp", "drat", "wt", "qsec", "vs", "am", "gear", "carb"],
  "coefficients": [12.303374155996185, -0.11144047788686268, 0.013335239913341082, -0.021482118989136323, 0.7871109722361157, -3.7153039283274749, 0.82104074967462848, 0.31776281418542285, 2.5202268872084224, 0.65541301708179189, -0.19941925485626746],
  "std_errors": [18.717884428721455, 1.0450233625100227, 0.017857500314128361, 0.021768579252703247, 1.6353730686050894, 1.8944142995327087, 0.73084479602344876, 2.1045086057077427, 2.0566505534822657, 1.4932599610727977, 0.82875249768176806],
  "t_stats": [0.6573058084020118, -0.10663922155691889, 0.74675848684099466, -0.98684065412622868, 0.48130361649375286, -1.9611887057883386, 1.1234132802777539, 0.15099145393067173, 1.2254035489603432, 0.43891421063143338, -0.24062582666609625],
  "p_values": [0.51812439689847456, 0.91608737551596131, 0.46348865035386777, 0.33495531411697732, 0.6352778979695004, 0.063252151144556429, 0.27394126997236234, 0.88142347197698312, 0.23398971070679547, 0.66520643429302129, 0.81217871295269395],
  "r_squared": 0.86901576447776452,
  "adj_r_squared": 0.80664231899098571,
  "f_statistic": 13.93246369020882,
  "f_p_value": 3.7931521053058888e-07,
  "mse": 7.0235442865071818,
  "rmse": 2.6501970278655098,
  "mae": 1.7227401628911452,
  "residual_std_error": 2.6501970278655098,
  "log_likelihood": -69.85490521723986,
  "aic": 163.70981043447972,
  "bic": 181.29864126807644,
  "conf_int_lower": [-26.622597445985615, -2.2846855306265788, -0.023801464972149147, -0.066752357783109728, -2.6138335025298178, -7.654954133285786, -0.69883420648291283, -4.0588024185929443, -1.7568120775801432, -2.4499910717427147, -1.9229044228879169],
  "conf_int_upper": [51.229345757977981, 2.0618045748528537, 0.050471944798831311, 0.023788119804837082, 4.188055447002049, 0.22434627663083617, 2.3409157058321699, 4.6943280469637907, 6.797265851996988, 3.7608171059062983, 1.524065913175382],
  "fitted_values": [22.599505761262424, 22.111886079356658, 26.25064408479879, 21.237404546675734, 17.693434028697492, 20.38303903567158, 14.386256252780944, 22.496011884888674, 24.419089897562294, 18.699029942339497, 19.191654392144269, 14.172162110443379, 15.59957359600965, 15.742224699463126, 12.034013415128035, 10.936437710856184, 10.493629361834646, 27.772905807778354, 29.896738911311349, 29.512369095738777, 23.643103441605035, 16.943053221176097, 17.732181497829334, 13.306021976201809, 16.691678988692217, 28.293468693444602, 26.152953960868611, 27.636272582797254, 18.870040802864757, 19.693828154474769, 13.941118382059868, 24.368267683243779],
  "residuals": [-1.5995057612624235, -1.111886079356659, -3.450644084798788, 0.16259545332426442, 1.0065659713025061, -2.2830390356715777, -0.086256252780943621, 1.9039881151113232, -1.6190898975622923, 0.50097005766050406, -1.391654392144269, 2.2278378895566191, 1.7004264039903514, -0.54222469946312735, -1.634013415128035, -0.53643771085618408, 4.2063706381653523, 4.6270941922216435, 0.50326108868864827, 4.3876309042612212, -2.1431034416050361, -1.4430532211760956, -2.5321814978293333, -0.0060219762018077772, 2.5083210113077814, -0.99346869344460065, -0.15295396086860982, 2.7637274172027437, -3.0700408028647566, 0.0061718455252309234, 1.0588816179401324, -2.9682676832437815],
  "weights": [1, 1, 1, 1, 1, 1, 1, 1, 1, 1, 1, 1, 1, 1, 1, 1, 1, 1, 1, 1, 1, 1, 1, 1, 1, 1, 1, 1, 1, 1, 1, 1]
}
