{
  "test": "wls",
  "method": "lm",
  "dataset": "prostate",
  "formula": "lcavol ~ lweight + age + lbph + svi + lcp + gleason + pgg45 + lpsa",
  "n": 97,
  "k": 8,
  "df_residual": 88,
  "df_model": 8,
  "variable_names": ["Intercept", "lweight", "age", "lbph", "svi", "lcp", "gleason", "pgg45", "lpsa"],
  "coefficients": [-2.4206126774680246, -0.025925015953137062, 0.022113188606096356, -0.093138392766136224, -0.15296648397562748, 0.36717992735815708, 0.19724921786369332, -0.0071173479101555746, 0.56582597873970564],
  "std_errors": [1.2970274399030199, 0.21181657275542887, 0.011080045227358188, 0.058057668263154241, 0.25428873545773462, 0.081814300710056909, 0.15420665060122779, 0.0043309299976101931, 0.088064530566936597],
  "t_stats": [-1.866277152663028, -0.12239370893358296, 1.9957669984501316, -1.6042392943508144, -0.60154644168676541, 4.4879675578895704, 1.2791226389695207, -1.6433763450535859, 6.4251291081331479],
  "p_values": [0.065333347377450293, 0.90286630064381435, 0.0490516160504854, 0.11224448077435444, 0.54902266647497155, 2.1671829385215708e-05, 0.20421651738247612, 0.10387352009156715, 6.54821639161103e-09],
  "r_squared": 0.67627465549824228,
  "adj_r_squared": 0.64684507872535524,
  "f_statistic": 22.97942171296469,
  "f_p_value": 1.4520660426755401e-18,
  "mse": 0.4905874907751171,
  "rmse": 0.70041951056143281,
  "mae": 0.54367601510302999,
  "residual_std_error": 0.70041951056143281,
  "log_likelihood": -98.375035968999796,
  "aic": 216.75007193799959,
  "bic": 242.49718172303341,
  "conf_int_lower": [-4.9981821631952146, -0.4468659441932748, 9.3927023896461792e-05, -0.20851580848123288, -0.65831191069151784, 0.20459119675881146, -0.10920409596568798, -0.015724161199699591, 0.39081622969291785],
  "conf_int_upper": [0.15695680825916547, 0.39501591228700067, 0.04413245018829625, 0.022239022948960435, 0.35237894274026282, 0.52976865795750272, 0.50370253169307455, 0.0014894653793884422, 0.74083572778649343],
  "fitted_values": [-0.82690659856505988, -0.51247343760758468, -0.087469320949780049, -0.51151843779491835, -0.12474589766661637, -0.16194597222288165, -0.045119606094703224, -0.21502469021844806, -0.0768612686735759, 0.28459672135458075, 0.44377218593435275, 0.1525685897601432, 0.68784992094918185, 0.71127215738885752, 0.85813520732923787, 0.58179738130452918, 0.69985327544067277, 1.2380152205306916, 0.086545528886889711, 0.45314381778060298, 0.52639834341721004, 1.3497084925971994, 0.50481663244182196, 1.1984112157469806, 0.51544705714260441, 0.64810293967004406, 0.65728372044436401, 0.5487378563802503, 0.83424482894982788, 1.9084676929528261, 0.70697402614912797, 0.57011247108205354, 0.76345429632569795, 0.63622243679205814, 1.0671750141574561, 0.70185517611611503, 2.4537469672716967, 1.0672384766636023, 1.7533887292686225, 1.2264465759086054, 0.95070152766874427, 1.2229657617889105, 1.0327137124453456, 1.9359627636587511, 1.2946266218594999, 0.99274837847583963, 2.3872334288931292, 1.2102158912468026, 0.70950853326119256, 1.2635078293731974, 1.1277868952044128, 0.88127782362020246, 1.1807537621067226, 1.9618168330367109, 1.2885642273904798, 1.0331113884070275, 1.7872730069229832, 0.68831068185354183, 1.2954758556458006, 0.88622621347585062, 1.1422365681427724, 1.9841255456010649, 2.4951224341343856, 1.9565449178519922, 1.3350104035390724, 1.4198277424138348, 1.8367627305349283, 1.6793577918280391, 1.4708670853536576, 1.5650858477633693, 1.9330810847579276, 1.4449724013562202, 2.0318727067089632, 1.9358599839913673, 2.7743288310565553, 2.6523384488541932, 1.9162559539936219, 1.7191528322684033, 2.7763690548889661, 2.1515944725143172, 2.0745725031932554, 2.5150002184930518, 2.4675054466533082, 2.7532025421010395, 2.1470545084311872, 2.7422917605626629, 1.3693212663837979, 2.217175475287422, 2.9834060309848032, 2.3284262131207698, 2.0605064740373171, 1.6559989869443623, 2.8789951080016132, 2.9705542981201525, 3.7417396779810326, 3.1699489128102547, 4.2499641836608353],
  "residuals": [0.24708810356505984, -0.48177883539241528, -0.42335630305021993, -0.69245436620508161, 0.87616198666661638, -0.88787615177711843, 0.78228367209470318, 0.908171871218448, -0.6996675203264241, -0.061453170354580755, -0.1891299679343528, -1.4996422377601433, 0.92558001305081816, 0.76577656661114257, 0.347835599670762, 0.95936169069547073, -1.1153687194406727, 1.0504709484693084, -0.64866444688688973, -0.27082226078060295, 0.62100410958278995, 0.70953034140280047, -1.049543807441822, 0.58329791725301927, -0.13018465614260441, 0.79881604332995593, -0.14446009444436408, -0.94921542338025022, 0.20603188305017214, 0.50117647204717386, -0.42179508414912792, -0.38779091408205357, 0.51190850367430196, -0.62627210579205816, -1.077225350157456, 0.60647764388388492, -1.0306386332716968, -0.6098136296636022, 0.90756986473137713, -0.42893937990860548, -0.33012503966874424, 0.21923623121108948, -0.45049809244534544, -0.16440600165875122, 0.19151307414050001, 0.67117771952416028, 0.34061939910687095, -0.047065081246802434, 1.0362069977388075, -0.042677908373197446, -0.035863594204412666, 0.77885320337979758, -0.66793013610672258, 0.16522368696328907, 1.8650261306095204, 0.23383621459297241, -0.81271336692298324, -0.22457666585354177, -0.75315156464580069, 0.17503028852414934, -0.68481172114277233, 0.013292160398935115, 0.28058641586561439, 0.078160730148007895, 0.73816152546092739, 0.038787280586165152, 0.18610845946507182, 0.51897728017196065, -1.9171541883536576, -0.37116337976336933, -0.069000953757927599, -0.2849514843562202, -0.81695996270896343, -0.096898912991367409, 0.22489733194344469, 0.4887920271458065, 0.094639045006378042, 0.81850438273159665, -0.12806885788896616, 0.62784572448568288, -0.60669815519325521, -0.0013441554930518664, 0.14550120534669209, -0.075611548101039455, -0.58470820343118723, 0.56055749843733682, 0.6548718006162022, -0.48551993028742202, -0.17581219998480296, -0.76607990812076976, 1.1859845179626829, 0.87690386105563767, -0.048727274001613335, 0.8504493088798476, -0.83429231898103262, -0.28738533781025483, -0.77799773066083566],
  "weights": [1, 1, 1, 1, 1, 1, 1, 1, 1, 1, 1, 1, 1, 1, 1, 1, 1, 1, 1, 1, 1, 1, 1, 1, 1, 1, 1, 1, 1, 1, 1, 1, 1, 1, 1, 1, 1, 1, 1, 1, 1, 1, 1, 1, 1, 1, 1, 1, 1, 1, 1, 1, 1, 1, 1, 1, 1, 1, 1, 1, 1, 1, 1, 1, 1, 1, 1, 1, 1, 1, 1, 1, 1, 1, 1, 1, 1, 1, 1, 1, 1, 1, 1, 1, 1, 1, 1, 1, 1, 1, 1, 1, 1, 1, 1, 1, 1]
}
