{
  "test": "wls",
  "method": "lm",
  "dataset": "synthetic_nonlinear",
  "formula": "x ~ y",
  "n": 100,
  "k": 1,
  "df_residual": 98,
  "df_model": 1,
  "variable_names": ["Intercept", "y"],
  "coefficients": [-2.1867547487264622, 0.59695659799687129],
  "std_errors": [0.25349418549145541, 0.047857726506936128],
  "t_stats": [-8.626449338421498, 12.473567834659947],
  "p_values": [1.1480274749960481e-13, 5.9732725846244372e-22],
  "r_squared": 0.61354926944849086,
  "adj_r_squared": 0.60960589464694492,
  "f_statistic": 155.58989452586326,
  "f_p_value": 5.9732725846244372e-22,
  "mse": 3.3525324491258179,
  "rmse": 1.8309922034585013,
  "mae": 1.4757611521764575,
  "residual_std_error": 1.8309922034585013,
  "log_likelihood": -201.36951871508489,
  "aic": 408.73903743016979,
  "bic": 416.55454798813406,
  "conf_int_lower": [-2.6898057097413917, 0.50198449729708861],
  "conf_int_upper": [-1.6837037877115328, 0.69192869869665397],
  "fitted_values": [-0.088954234999600423, -0.20729515465566273, -0.051234959581487161, -0.59678160065244068, -0.52187015255744651, -0.79269146757924513, -0.88489776439330647, -0.94433451937940394, -0.87894005651225626, -1.1776725946025599, -0.74584045817371836, -1.469902703051158, -1.3372299310049192, -1.4876194787167125, -0.99573983930781829, -1.4365715746468664, -1.2512088167007844, -2.0628981991380737, -1.5964261396832542, -1.4635890816153181, -1.7538998391086917, -1.506117846919667, -2.02056632277601, -1.48387918525741, -1.2530850127866837, -2.0786185896099383, -2.1307004636398617, -1.5876779144957631, -1.5701131825676766, -2.2140886466339382, -2.1962335434777227, -2.1640596463106005, -2.4867240523098211, -2.3614596527518561, -2.3851489787038744, -2.3091239667813976, -2.0811695832375436, -1.9881182601470806, -1.5787904400793069, -2.3194686568945144, -1.7039287536892938, -2.0341901795079389, -1.954020058214464, -1.7031198377489256, -2.2012751053425132, -1.70999960632395, -1.7287774522904595, -1.5821385526088445, -1.5898242838297003, -0.88663685664329206, -1.7495435653748286, -1.6537299779023507, -1.6136252612823292, -1.5221671660857587, -1.4716990260865448, -0.84798620552709858, -0.69666671883170483, -1.2051319032786043, -1.193682242441612, -0.71134603647713557, -0.92003666443279264, -0.46579591339190052, -0.48999200046587954, -0.89517017312827152, 0.13060440621724823, 0.31985379651770485, -0.28031078171867141, -0.090702633636607688, 0.23642147169759409, 0.38065840094451864, 0.6107793959623129, 1.1512630308785656, 0.63914253331246207, 0.59803434183096038, 0.57261765662072261, 0.91780799007384473, 1.2814017574863019, 1.9858951768856052, 1.4583864799876081, 1.8459561523553993, 1.9441909756868752, 2.4773894685385209, 3.0541558332743954, 2.3223644715699354, 2.519280629833764, 3.1652319101742434, 3.2489616886475639, 3.7921477304823124, 3.614403816478124, 3.5356957521290271, 4.0257114760467756, 4.3904694317780182, 4.5182277082299329, 4.6421824452439067, 5.0302464385413108, 5.2856260501756251, 5.5775651190181188, 5.5907049047437134, 5.5829108505421203, 5.9159501757977084],
  "residuals": [-4.9110457650003996, -4.6916947443342361, -4.7467448383983104, -4.1001880963172566, -4.0740894434021495, -3.7022580273702497, -3.5090416295460871, -3.3485947735498893, -3.3129791354069358, -2.9132364963065309, -3.2440585317252713, -2.4189861858377308, -2.4506488568738689, -2.1992492081519743, -2.5901187465507673, -2.0482769102016185, -2.1326295671375997, -1.2199300836902092, -1.5853920421349275, -1.6172189991927628, -1.2258981406892879, -1.3726700318682119, -0.75721145500176767, -1.1928884915102669, -1.322672562970892, -0.39612888513753669, -0.24303691009751216, -0.68504935823150981, -0.60160398914949509, 0.14338157592686734, 0.22653657378075293, 0.29537277762373154, 0.71904728463305334, 0.6947929860851898, 0.81949241304730891, 0.84447750213493311, 0.71753321960117966, 0.72549199752081805, 0.41717427846314509, 1.2588625962884541, 0.74433279409333442, 1.1756043209220797, 1.1964443006387062, 1.046554181183269, 1.6457195497869581, 1.255454151778495, 1.3752420987551057, 1.3296133000835919, 1.4383091323145489, 0.8361318061382419, 1.8000486158798787, 1.805245129417502, 1.8661505138075818, 1.8757025196211126, 1.9262444806319989, 1.4035417610826539, 1.3532323753973614, 1.9627076608543621, 2.0522681010274701, 1.6709419960730949, 1.9806427250388532, 1.6274120750080623, 1.7526182630921416, 2.2588065367646348, 1.3340420584292163, 1.2458027691388609, 1.9469774483853384, 1.858379401313375, 1.6322653969892744, 1.5890385687524511, 1.459927674744758, 1.0204541408386056, 1.6335847394148104, 1.7757030319064133, 1.9021298181267523, 1.6579495856837305, 1.3953659192813745, 0.79188260089217244, 1.4204013988002708, 1.1338418274425799, 1.1366171051212062, 0.70442871327966072, 0.22867244955388638, 1.0614739122684489, 0.9655678550147202, 0.42062667568434292, 0.43790699822112283, -0.0042689426035252276, 0.27448507241076509, 0.45420323776996246, 0.065197614862313957, -0.19855023985882575, -0.22529841530064082, -0.24824305130451235, -0.53529694359181623, -0.68966645421602979, -0.88059542204842178, -0.79272510676391605, -0.68392095155222021, -0.91595017579770865],
  "weights": [1, 1, 1, 1, 1, 1, 1, 1, 1, 1, 1, 1, 1, 1, 1, 1, 1, 1, 1, 1, 1, 1, 1, 1, 1, 1, 1, 1, 1, 1, 1, 1, 1, 1, 1, 1, 1, 1, 1, 1, 1, 1, 1, 1, 1, 1, 1, 1, 1, 1, 1, 1, 1, 1, 1, 1, 1, 1, 1, 1, 1, 1, 1, 1, 1, 1, 1, 1, 1, 1, 1, 1, 1, 1, 1, 1, 1, 1, 1, 1, 1, 1, 1, 1, 1, 1, 1, 1, 1, 1, 1, 1, 1, 1, 1, 1, 1, 1, 1, 1]
}
