{
  "test": "wls",
  "method": "lm",
  "dataset": "synthetic_collinear",
  "formula": "x1 ~ x2 + x3 + y",
  "n": 100,
  "k": 3,
  "df_residual": 96,
  "df_model": 3,
  "variable_names": ["Intercept", "x2", "x3", "y"],
  "coefficients": [-4.4408920985006262e-15, -0.49999999999999784, 0.49999999999999872, 3.9625037673697681e-16],
  "std_errors": [9.1611461198058654e-16, 2.3559102335725284e-16, 1.4276581734296753e-15, 5.7201151366511405e-16],
  "t_stats": [-4.8475289449861254, -2122321949600738, 350223890638222.25, 0.6927314700328967],
  "p_values": [4.8072842984685237e-06, 0, 0, 0.49015048171657216],
  "r_squared": 1,
  "adj_r_squared": 1,
  "f_statistic": 2.7135758316460485e+31,
  "f_p_value": 0,
  "mse": 9.1122767783668009e-30,
  "rmse": 3.0186547961578516e-15,
  "mae": 9.6731839452888477e-16,
  "residual_std_error": 3.0186547961578516e-15,
  "log_likelihood": 3203.5437558549361,
  "aic": -6397.0875117098722,
  "bic": -6384.061660779932,
  "conf_int_lower": [-6.259365230838574e-15, -0.49999999999999828, 0.49999999999999589, -7.3918350389848815e-16],
  "conf_int_upper": [-2.6224189661626787e-15, -0.49999999999999739, 0.50000000000000155, 1.5316842573724419e-15],
  "fitted_values": [8.6236370874674666, 9.4952062365764007, 1.4707348092903647, 9.2658762516149444, 4.9211629307953837, 2.5824438829895833, 4.5913575623826137, 9.8003257528547731, 4.9261809399286962, 3.2875161028750823, 6.3340085431672568, 2.4014561877819314, 0.75863328108664019, 1.288797219106492, 1.2804583895777248, 1.5190269351229431, 1.388271726494102, 6.4087474480321474, 1.8188008439914485, 3.4566728332386325, 8.9678840990601181, 4.7396164026287231, 6.6755773852102713, 1.723198712016299, 1.9228901880867078, 0.40868616266478941, 1.6893506307216453, 2.7859033903195862, 1.7701048427674679, 0.88702533757055679, 1.206358711006007, 4.6077876803272577, 2.0633371840579247, 3.6426986104807559, 5.0341727085485681, 6.9039482862936543, 0.39312139841098986, 7.9941039890904255, 6.2790038949090787, 0.81759031948871952, 8.7357862410677729, 9.2087240053181318, 0.61077959854863773, 2.7687764814720377, 8.0620127979306151, 7.4825969038365834, 1.8452101935637741, 2.093493233367103, 3.7047210279138194, 4.8452298519102133, 6.1825477153029604, 3.6891363956977252, 4.6253471613314803, 7.4747093813375658, 0.36683202890597782, 2.5243694434402064, 7.1334958588455244, 8.9520683768719937, 5.116774421156661, 5.3211348526531577, 1.0717201133977603, 4.4741236682345464, 5.3261726645502314, 2.4247050363472975, 2.6924323094938098, 3.7728416310462265, 0.20071197777726318, 3.2207916558317828, 2.1144800699654462, 3.2749735217791471, 1.1976213181925113, 8.9052728073989496, 5.9359245355404875, 6.7910231914448964, 7.8917123860733831, 4.9844219892905723, 0.86920288087423614, 5.3710654181854789, 5.868411180208791, 7.4543947418433003, 4.3165954622967941, 1.275803027955638, 2.8377590579872445, 3.630822963986351, 6.4591724133160131, 5.7077830466891193, 3.5609672589784624, 9.8651524879297963, 6.0577481935688713, 2.3722679173599452, 1.0178247262040379, 1.5285913918433207, 2.4595772838450816, 1.6068137325955574, 1.8656702405130574, 2.8509516869384717, 1.7337359529475482, 8.967654246264253, 0.80233745661642242, 5.2451138957025467],
  "residuals": [-1.3910696248579842e-14, 2.0828387259842652e-14, 1.4589865041409565e-14, 2.7413726216052244e-16, -1.352560312164499e-15, -1.6027787664500563e-16, -9.3347608540330696e-16, -9.635626120298067e-16, -7.7642092955751996e-18, -4.9257921466900023e-16, 8.3995528910848148e-16, -5.4439121302029137e-16, -9.4963467819454623e-16, 2.9521926944287608e-16, -3.7764110839141574e-16, 4.3349061868577761e-16, -7.7213795346663242e-16, -4.8882188024827847e-16, -3.1756136525510887e-16, -4.4002181153804789e-16, 3.8503771782711385e-16, -2.1383899705746099e-16, -3.4312729604938834e-16, -5.7220859785960889e-16, -4.5729831439089058e-17, -7.5920660409611399e-16, 1.3528836557482379e-16, 2.346202203572481e-17, 2.1561618292803912e-16, -6.9872041145611571e-16, 1.1008146763197735e-15, -3.4705105817698484e-16, 4.8273124048727192e-16, -1.1519411135552566e-15, 5.3069783412395076e-16, -6.8775064576883643e-16, -5.1021429004505725e-16, 7.5736483665994366e-16, -1.0268406585455014e-15, -4.9143393836492668e-16, -6.2201797537495818e-16, 1.4160313367599834e-16, -1.7212728038313672e-16, -3.6369832649863089e-16, -1.4575662620222477e-15, -4.221418191860092e-16, -9.4536648207355369e-16, 6.0044419766504349e-17, 5.9411908904496756e-16, -1.155847819101495e-16, -7.4484787432184325e-16, -1.182362087386093e-15, -6.0220838657291121e-16, -8.1991246006996121e-16, 1.144841861208428e-15, 6.7810588420295608e-16, -1.7433537063347703e-16, -7.4115712051649221e-17, -4.6635549041010904e-17, -6.7104690088510223e-16, 1.8711620588983359e-16, -3.3240763524902509e-16, -1.5138630978144072e-16, -9.9526509512326286e-16, -3.4844811860167257e-16, -1.6468548870932095e-16, 5.1167483483233334e-16, -3.682677180788247e-17, -1.2011874696206362e-16, -7.0099514602952377e-16, 8.9619590131104836e-16, 4.9397051123364566e-16, -7.6344602296438845e-16, 2.8448081028167155e-16, 1.6913008084980044e-16, -1.3022564858046486e-16, 7.462393464092789e-16, -5.8001132331979401e-16, 4.3271210526410047e-16, 3.7981234351317974e-16, 2.2044057017829123e-16, -3.5690271819856063e-16, -1.2374045400513717e-16, -1.437705748938255e-16, -9.6589682194926421e-16, 1.5441279931565406e-17, 1.7502453516946567e-16, -3.0558630331245887e-16, 4.5734960066864984e-17, -2.9699463863679972e-16, -4.9844008883135252e-16, -5.3857305926763715e-16, -6.393446153266255e-16, -7.1712002181503928e-16, 2.1903289193346633e-16, -1.0197429064042471e-15, -4.836182382479479e-17, -1.0652468206183962e-15, -3.4922529250482153e-16, 7.8131345074338804e-17],
  "weights": [1, 1, 1, 1, 1, 1, 1, 1, 1, 1, 1, 1, 1, 1, 1, 1, 1, 1, 1, 1, 1, 1, 1, 1, 1, 1, 1, 1, 1, 1, 1, 1, 1, 1, 1, 1, 1, 1, 1, 1, 1, 1, 1, 1, 1, 1, 1, 1, 1, 1, 1, 1, 1, 1, 1, 1, 1, 1, 1, 1, 1, 1, 1, 1, 1, 1, 1, 1, 1, 1, 1, 1, 1, 1, 1, 1, 1, 1, 1, 1, 1, 1, 1, 1, 1, 1, 1, 1, 1, 1, 1, 1, 1, 1, 1, 1, 1, 1, 1, 1]
}
