{
  "test": "wls",
  "method": "lm",
  "dataset": "synthetic_high_vif",
  "formula": "x1 ~ x2 + x3 + y",
  "n": 100,
  "k": 3,
  "df_residual": 96,
  "df_model": 3,
  "variable_names": ["Intercept", "x2", "x3", "y"],
  "coefficients": [-0.23900657644690221, -0.055976446136137836, -0.14949187852952692, 0.29800053913734842],
  "std_errors": [0.05875253661082968, 0.084768370255886821, 0.018802608319936361, 0.024438059255589967],
  "t_stats": [-4.06802140357029, -0.66034590457695508, -7.9505925978908492, 12.194116399369303],
  "p_values": [9.7244827859939542e-05, 0.51061325618491293, 3.613766988892923e-12, 3.2352625786778791e-21],
  "r_squared": 0.99562104851879496,
  "adj_r_squared": 0.99548420628500733,
  "f_statistic": 7275.6854441864089,
  "f_p_value": 4.8004079265586927e-113,
  "mse": 0.039754609432797565,
  "rmse": 0.19938557980154323,
  "mae": 0.15698534116514484,
  "residual_std_error": 0.19938557980154323,
  "log_likelihood": 21.398720607104515,
  "aic": -32.79744121420903,
  "bic": -19.771590284268569,
  "conf_int_lower": [-0.35562943988154794, -0.22424033120740006, -0.1868147610603022, 0.24949137491094617],
  "conf_int_upper": [-0.12238371301225651, 0.11228743893512438, -0.11216899599875162, 0.3465097033637507],
  "fitted_values": [3.5992543874952703, 8.3068710544862281, 4.1373975763217681, 2.731399395441239, 6.2063307472583809, 7.020555899421729, 1.4373236028303602, 1.9824886041911185, 0.3216650239373014, 7.3095046294689228, 6.8719214328678433, 4.8069759847818769, 8.1725275354856759, 8.2152108330458979, 5.7024565600047596, 8.694567141955531, 2.0035211042624779, 0.92730497130160083, 2.8127585156723471, 0.7262721961752383, 5.1251475315069293, 8.8839624273903119, 0.1663564042268128, 1.310718179831428, 4.183546661513776, 9.1721609461541203, 3.1970296398572815, 5.3130674453134779, 0.59359087673364719, 1.1924275606545882, 9.859264074404253, 9.6698429294454211, -0.011882429963754465, 9.2861796347597299, 6.3638240428596609, 8.3783964842571841, 4.5338954511080143, 5.2458669179950705, 4.608428874027366, 6.4373202839832055, 1.4695069134039862, 0.37301945772846984, 2.9949838796893311, 7.2333785636178121, 1.9863929757986827, 7.1369437448043698, 9.7464972107797809, 0.86147901378916736, 7.0312739748385473, 4.4111811053606802, 8.7416441610960778, 1.8547709894592066, 7.0064868402211706, 8.4840201170204175, 9.222523370050137, 6.8937951714216199, 4.8879215044728301, 5.9728826920451583, 8.8488943137272962, 5.814401300561979, 0.26794727980562727, 9.4208321935238022, 6.5848719606822605, 6.6233199483747693, 2.2682057365738055, 6.7144172054485489, 3.6503811272226976, 6.6007366701838892, 1.360535650849974, 6.7057386820381648, 10.049811720833256, 0.40474859246106659, 9.4949728170536183, 4.2805365454870525, 8.7170525298673631, 8.0013941162877416, 5.7876623753890941, 7.2686307160456378, 8.7867573943576023, 4.6728066530849768, 3.0958297607456755, 6.9786717594164447, 8.2378770240582284, 7.5576903050699524, 8.2257383486777886, 4.6236518178024415, 8.164583512035211, 1.3803472404459227, 5.3098599465029235, -0.1294915603103583, 3.0298164887458956, 3.2392380135770726, 4.2781176953444886, 6.6681993624743896, 3.8870962463214989, 4.2623527587168502, 2.4878596341602131, 3.9622574081826265, 2.1946148752218879, 0.73732701591427596],
  "residuals": [-0.22922262318240769, -0.018037395660134379, 0.17147766029629058, -0.24425666956493977, -0.034880881218079883, 0.047216269432729469, 0.23309547617913837, -0.30629644130794198, 0.045049245398128324, 0.0545155211874815, -0.23387615664979197, -0.06066722728373776, 0.26917695420629684, -0.15850930354536491, 0.15108708396276144, -0.011854336822944731, 0.054890996105204912, 0.19189122267567787, -0.11526240050245112, -0.15540363528208981, 0.18654774850339073, 0.48209449555930145, 0.22707900245828366, -0.089619039731160144, 0.33844362132057682, 0.16658922912492977, -0.035468590089776306, -0.24071935842955378, -0.17786228622972625, 0.2910044489663004, 0.0070371551842156391, -0.018655965084965469, 0.061282239307850622, 0.2319382194726605, 0.027375335295343011, 0.30078646094303707, 0.013503105230576389, -0.089906632202567616, 0.28003692854183604, 0.23132229147783803, -0.07299436584085707, -0.073283559001690299, 0.084315536222578008, -0.18657093625134433, 0.03214154543080068, -0.40261941155519626, -0.047376749707075935, 0.077528144105016489, -0.30525279258728533, 0.026321087685031403, -0.06022161732102406, -0.083273094985347434, -0.080227317959524785, -0.10286722053931395, 0.22361882469009617, -0.061314888525161315, 0.083826135611442754, 0.20558970996698026, -0.15984446894011467, -0.10830383417368274, 0.035923317162741358, -0.11134523845402375, 0.31039554963335114, 0.14181390939769603, -0.11145421259663386, -0.12556250312197739, 0.28826292931888708, -0.088406899768969038, -0.29460534777006686, -0.12728563600780424, -0.055674463126591578, 0.077371796144493701, 0.27676902515955509, -0.21145693825834641, -0.0095180264947708707, -0.17753927570500719, -0.11749976552241617, 0.11586137646762754, -0.0016017813441223695, -0.63140343657464715, 0.17450185488671147, -0.30273790378059728, -0.15941760464564281, 0.065161042696205054, -0.24760186009144305, -0.26781866967311191, 0.013758649715004543, -0.17825668673983824, 0.13503103310557252, 0.18707816529157401, 0.21604181025680724, 0.42537733513690623, -0.3163907792519346, 0.28647270442423239, -0.0015152336180418897, 0.22458346750845651, -0.11241832541693808, -0.22973949188922566, 0.078081397409626663, -0.0053677782298395937],
  "weights": [1, 1, 1, 1, 1, 1, 1, 1, 1, 1, 1, 1, 1, 1, 1, 1, 1, 1, 1, 1, 1, 1, 1, 1, 1, 1, 1, 1, 1, 1, 1, 1, 1, 1, 1, 1, 1, 1, 1, 1, 1, 1, 1, 1, 1, 1, 1, 1, 1, 1, 1, 1, 1, 1, 1, 1, 1, 1, 1, 1, 1, 1, 1, 1, 1, 1, 1, 1, 1, 1, 1, 1, 1, 1, 1, 1, 1, 1, 1, 1, 1, 1, 1, 1, 1, 1, 1, 1, 1, 1, 1, 1, 1, 1, 1, 1, 1, 1, 1, 1]
}
