{
  "test": "wls",
  "method": "statsmodels",
  "dataset": "bodyfat",
  "formula": "Density ~ BodyFat + Age + Weight + Height + Neck + Chest + Abdomen + Hip + Thigh + Knee + Ankle + Biceps + Forearm + Wrist",
  "n": 252,
  "k": 14,
  "df_residual": 237,
  "df_model": 14,
  "variable_names": [
    "Intercept",
    "BodyFat",
    "Age",
    "Weight",
    "Height",
    "Neck",
    "Chest",
    "Abdomen",
    "Hip",
    "Thigh",
    "Knee",
    "Ankle",
    "Biceps",
    "Forearm",
    "Wrist"
  ],
  "coefficients": [
    1.0981463302318186,
    -0.0022195424732888926,
    1.7438215283175663e-05,
    4.321120846081765e-05,
    -4.643690700825015e-06,
    3.063769439616386e-05,
    7.018382819614505e-05,
    -0.0001574020342934683,
    9.063356917253518e-05,
    -9.083731848232024e-05,
    -1.4522350828966024e-05,
    -0.0002452485737748072,
    -0.00017239132973348795,
    -1.35475762701176e-05,
    0.00036166344680779033
  ],
  "std_errors": [
    0.011956987816646341,
    4.457272249191046e-05,
    2.241563522707124e-05,
    3.701651113684857e-05,
    6.609007865534604e-05,
    0.0001612228983503506,
    6.818508244684883e-05,
    7.310799432741282e-05,
    0.00010075850717311934,
    9.98216360609464e-05,
    0.0001663933497660774,
    0.00015248519568526243,
    0.00011794969227711593,
    0.00013840228407717049,
    0.00037487303376439727
  ],
  "t_stats": [
    91.84138572952259,
    -49.79598169467255,
    0.7779487445493236,
    1.167349572764098,
    -0.07026305302254904,
    0.1900331448550542,
    1.029313534244888,
    -2.1530071470507886,
    0.8995128224439859,
    -0.9099962900513796,
    -0.08727723102745477,
    -1.6083435029392184,
    -1.4615665916996592,
    -0.09788549633013086,
    0.9647625041898613
  ],
  "p_values": [
    2.89446482805022e-187,
    1.6167249463743905e-127,
    0.4373751500885516,
    0.24424234606231238,
    0.9440435400415048,
    0.8494458213668394,
    0.3043816821563198,
    0.03232775193426938,
    0.36929259682425497,
    0.36374900120753517,
    0.9305248477527183,
    0.1090912516760122,
    0.1451846184665897,
    0.9221059499810443,
    0.3356471598885205
  ],
  "r_squared": 0.9771518478623622,
  "adj_r_squared": 0.9758021679892528,
  "f_statistic": 723.9878635896025,
  "f_p_value": 1.3326212878006274e-185,
  "mse": 8.764345540400837e-06,
  "rmse": 0.0029604637373899442,
  "mae": 0.0009263560093618802,
  "residual_std_error": 0.002960463737389944,
  "log_likelihood": 1117.4071343056407,
  "aic": -2204.8142686112815,
  "bic": -2151.8728322986103,
  "conf_int_lower": [
    1.0745907771409227,
    -0.0023073518068070105,
    -2.6721124322602327e-05,
    -2.9712207260144475e-05,
    -0.00013484273250131593,
    -0.00028697528638087786,
    -6.414242137549282e-05,
    -0.0003014265384709182,
    -0.00010786310921092831,
    -0.0002874883382801496,
    -0.00034232124503961455,
    -0.000545648070505858,
    -0.00040475505553911657,
    -0.0002862033989968365,
    -0.00037684543056089325
  ],
  "conf_int_upper": [
    1.1217018833227146,
    -0.0021317331397707746,
    6.159755488895365e-05,
    0.00011613462418177977,
    0.0001255553510996659,
    0.0003482506751732056,
    0.00020451007776778291,
    -1.3377530116018456e-05,
    0.00028913024755599867,
    0.0001058137013155091,
    0.0003132765433816825,
    5.5150922956243725e-05,
    5.9972396072140676e-05,
    0.0002591082464566013,
    0.0011001723241764738
  ],
  "fitted_values": [
    1.0694198630862763,
    1.085091682391732,
    1.040475486185345,
    1.0760332140324889,
    1.0321084078764804,
    1.0517018585046711,
    1.055835793738213,
    1.070783588614708,
    1.08957464627752,
    1.0725051119734936,
    1.0830459712173304,
    1.0813318580531326,
    1.0521719234826532,
    1.0500855515712149,
    1.0471906175199273,
    1.050326083454056,
    1.0326609575574024,
    1.047106470696768,
    1.0624395427063256,
    1.0609732931582248,
    1.0554222890961564,
    1.0649504166947814,
    1.0631362995409692,
    1.0583194405888945,
    1.0670305323188216,
    1.0903554348406155,
    1.0800953889418028,
    1.0464452037117435,
    1.0902374629669824,
    1.0789176260185214,
    1.0697141226093203,
    1.085893464648784,
    1.072818163914649,
    1.050706961229536,
    1.0260596150244368,
    1.0086643185828552,
    1.0444587729675743,
    1.0350405416747939,
    1.0210668661147098,
    1.0247825099860768,
    1.0225760438643572,
    1.0244930177210891,
    1.0268796569538412,
    1.0266798499219216,
    1.080615841051854,
    1.0681854095448093,
    1.0741995984050843,
    1.0861769981572496,
    1.0671311490814384,
    1.0896438259324137,
    1.0761048536558777,
    1.0841270141327417,
    1.0799188065821004,
    1.0834890561460568,
    1.0897221380258384,
    1.0483031725182557,
    1.0520707269821419,
    1.0359751791094307,
    1.0284573076922607,
    1.042831282923563,
    1.0410689814945593,
    1.0320370938298167,
    1.0295437868856183,
    1.040147370841676,
    1.025420038715062,
    1.030592482146313,
    1.0502742491645412,
    1.0673639354797164,
    1.0846996070506942,
    1.0705746815584267,
    1.044392412590376,
    1.0784464217085328,
    1.0803015703478216,
    1.0683766014354041,
    1.071847621337052,
    1.057954819992997,
    1.0793476745467103,
    1.0499817091836523,
    1.050552885068001,
    1.056552723039426,
    1.028226910763589,
    1.0386949315925285,
    1.057379264709222,
    1.0381637761095177,
    1.0377110507386547,
    1.036676031556616,
    1.0654583939380695,
    1.046820657322502,
    1.0805441163685467,
    1.0675063292810356,
    1.0527642842460525,
    1.0581723505232346,
    1.08038894622736,
    1.042902789530425,
    1.0789657054461155,
    1.0625035007452137,
    1.0774266332167324,
    1.072889031055538,
    1.058069287021216,
    1.0496270172698687,
    1.052505344755611,
    1.052941139298984,
    1.0533675322084162,
    1.049546153695173,
    1.0413765973371119,
    1.057718228249062,
    1.0551541524973673,
    1.0581014061762175,
    1.061320269621981,
    1.0498280229557826,
    1.0536488347110966,
    1.033853050016038,
    1.0480839021618915,
    1.0500256281122036,
    1.0386765726561447,
    1.0607031807013039,
    1.0539487328861656,
    1.0678273039815838,
    1.0402191125019984,
    1.0588936167897636,
    1.036963766294406,
    1.0414535209249123,
    1.065102287779585,
    1.061983426048294,
    1.0669902685180066,
    1.058545894579831,
    1.036898071825338,
    1.060175632745479,
    1.0523440255027887,
    1.065102200447195,
    1.0582049696505755,
    1.046796471694666,
    1.0454870347143188,
    1.039487593532325,
    1.0438868640121661,
    1.0374974296471753,
    1.048888041801671,
    1.030948035573455,
    1.048170541882607,
    1.0517205122409055,
    1.042580389854321,
    1.0569511123415691,
    1.0467011341078578,
    1.0779460299061119,
    1.0763937030075843,
    1.065855223262503,
    1.0542109873356293,
    1.0319986080857513,
    1.0872508080735375,
    1.041959951523411,
    1.0777631061879303,
    1.0548345485494468,
    1.0761309219906747,
    1.0604805262970998,
    1.050827542251131,
    1.0600179995482795,
    1.0270934165222454,
    1.0757210604546128,
    1.0704933590313743,
    1.0477510378301225,
    1.0777108122358936,
    1.066207565749338,
    1.0693986233977624,
    1.0637570034656354,
    1.0377314181266264,
    1.0559839533276894,
    1.0497062582810484,
    1.0538024087485849,
    1.0202787312514126,
    1.0605030044216115,
    1.0913614881463447,
    1.0970695834585862,
    1.0529304711044363,
    1.0607358832423481,
    1.0427860640310538,
    1.0761410085359133,
    1.0680011407637346,
    1.0324208133767305,
    1.0472834550450332,
    1.0603723534457505,
    1.0388671463089554,
    1.0981607952114192,
    1.0718759846317483,
    1.0705074101624448,
    1.0592082737655022,
    1.0790563503078636,
    1.0459623178314252,
    1.0530408123384234,
    1.0521429529838313,
    1.0429660014449869,
    1.0732522374887297,
    1.0134210178686132,
    1.0630988476422543,
    1.0431233989341235,
    1.046621617590679,
    1.04066998778228,
    1.0484707723443816,
    1.0578762878894379,
    1.0852506619316864,
    1.0452138985529387,
    1.071513291569166,
    1.0486785082507808,
    1.0337653097990347,
    1.085344032043805,
    1.0207299101939236,
    1.0615671396048436,
    1.0243166526051712,
    1.0240660182681078,
    1.0772465493357704,
    1.0742079391763608,
    1.0821676341504949,
    1.038491958215957,
    1.0555372368692493,
    1.0566840907321204,
    1.0559886693795741,
    0.9917257643387857,
    1.0685127373634817,
    1.0827039147955555,
    1.0438178028989797,
    1.0646015028978573,
    1.0696188206267958,
    1.039846443154852,
    1.072389040307071,
    1.086025210372174,
    1.0745668472049865,
    1.0705241887095343,
    1.0654035211149466,
    1.0427638659839853,
    1.0656429449531848,
    1.0601384197221615,
    1.0740586001095205,
    1.0627743328356918,
    1.0646642766679932,
    1.038841020218843,
    1.040557765656769,
    1.0568800639060527,
    1.0436243899046398,
    1.0379179951745134,
    1.0710361596497144,
    1.0313057303515534,
    1.0604348003244124,
    1.0210220135693036,
    1.032075942051243,
    1.0256629650408373,
    1.0343075963532375,
    1.0654951470121068,
    1.0315285160230567,
    1.0743067493123772,
    1.0241164483276919,
    1.0322424146651459,
    1.0415673268363863,
    1.0283521752618838
  ],
  "residuals": [
    0.0013801369137236286,
    0.00020831760826789392,
    0.0009245138146551923,
    -0.000933214032488916,
    0.0018915921235196365,
    -0.0015018585046711053,
    -0.0009357937382130643,
    -0.00038358861470788597,
    0.00042535372248009296,
    -0.0003051119734935881,
    -4.597121733040943e-05,
    -0.00013185805313264964,
    -0.0008719234826533029,
    0.0004144484287851302,
    0.0012093824800727404,
    0.0008739165459439313,
    0.0006390424425977148,
    -0.0003064706967681463,
    -0.0002395427063255351,
    2.6706841775192558e-05,
    -0.0003222890961565028,
    -0.000950416694781353,
    -3.629954096928678e-05,
    8.055941110551856e-05,
    -0.00023053231882164127,
    0.0007445651593844804,
    0.001004611058197158,
    0.0003547962882564093,
    0.0007625370330175407,
    8.237398147858954e-05,
    0.001885877390679802,
    0.00030653535121616393,
    -0.0009181639146489395,
    -0.0005069612295360848,
    0.0002403849755632237,
    0.0014356814171447851,
    -0.0006587729675742171,
    -0.00044054167479390394,
    -0.0008668661147097634,
    0.0010174900139232612,
    -0.0008760438643571344,
    0.0005069822789107725,
    0.0010203430461588336,
    0.00022015007807829612,
    0.0007841589481458744,
    -0.0011854095448093904,
    4.015949157665233e-07,
    -0.019676998157249548,
    0.0006688509185617253,
    0.0006561740675863348,
    -0.0005048536558778238,
    -0.00012701413274163187,
    0.0007811934178996172,
    0.0013109438539431473,
    0.00087786197416162,
    -0.0010031725182557683,
    0.0003292730178581227,
    -0.0003751791094306345,
    -0.0004573076922607111,
    0.00016871707643684175,
    -0.0014689814945592072,
    -0.00033709382981661484,
    0.00025621311438173144,
    0.00015262915832403579,
    0.0009799612849379358,
    0.0007075178536870563,
    -0.00037424916454109614,
    -6.393547971650371e-05,
    3.9294930576083686e-07,
    -0.0012746815584268045,
    -0.0004924125903760235,
    0.00035357829146720476,
    -0.0007015703478217006,
    -0.0003766014354040781,
    0.00015237866294803837,
    0.008645180007003095,
    -0.0003476745467103637,
    -0.0016817091836522913,
    -0.0007528850680009747,
    -0.0005527230394259952,
    7.308923641091702e-05,
    -0.000494931592528447,
    -0.0005792647092219827,
    -0.00046377610951764403,
    8.89492613453946e-05,
    0.0019239684433840498,
    -0.0006583939380695458,
    -0.0006206573225020495,
    -0.0005441163685466766,
    -0.0009063292810356227,
    -0.0007642842460524601,
    -0.000872350523234644,
    -0.0008889462273600213,
    -0.0005027895304250407,
    -0.00046570544611546083,
    0.03659649925478625,
    -0.0004266332167324194,
    0.00011096894446205319,
    0.00013071297878397559,
    -0.0012270172698687354,
    -0.0019053447556109937,
    -0.000541139298984028,
    -0.00036753220841623246,
    -0.0015461536951728583,
    -0.00017659733711195003,
    8.177175093804223e-05,
    -0.00045415249736735497,
    -0.0012014061762175565,
    -0.0020202696219810967,
    0.00017197704421745286,
    0.00015116528890346537,
    0.0016469499839619761,
    0.0005160978381084647,
    0.00027437188779644295,
    -0.0002765726561446691,
    -3.1807013038953613e-06,
    -0.001048732886165693,
    -0.0007273039815838267,
    0.00018088749800160286,
    -0.0013936167897634633,
    -0.0011637662944059546,
    -5.352092491217597e-05,
    9.771222041488059e-05,
    0.00031657395170592295,
    0.0004097314819933029,
    0.00015410542016902617,
    0.00040192817466211395,
    -0.0011756327454790494,
    -0.0008440255027886145,
    -0.000302200447195089,
    -0.0007049696505754266,
    0.00040352830533385564,
    -0.00028703471431890115,
    0.00031240646767516367,
    -0.0003868640121660327,
    -9.742964717518454e-05,
    0.00021195819832886542,
    0.0015519644265449273,
    -7.054188260702254e-05,
    0.00047948775909456565,
    -0.00038038985432109484,
    0.00014888765843079632,
    -0.0008011341078577594,
    -0.0004460299061119777,
    -0.00099370300758439,
    0.000544776737497088,
    0.0007890126643705919,
    0.0002013919142487275,
    4.9191926462466284e-05,
    -0.0003599515234109507,
    -0.0001631061879303619,
    -0.0006345485494467784,
    -0.00033092199067463746,
    0.000519473702900175,
    0.00017245774886887055,
    -0.0006179995482795686,
    0.001606583477754553,
    0.00037893954538725794,
    -9.335903137430712e-05,
    -5.103783012239127e-05,
    -0.00021081223589369813,
    -0.0009075657493380351,
    -0.00039862339776242095,
    0.0006429965343646149,
    -0.0007314181266264708,
    -0.001083953327689402,
    -0.000506258281048444,
    -0.0013024087485848934,
    -0.0022787312514125357,
    0.0004969955783884483,
    0.0012385118536553108,
    0.0012304165414138701,
    -0.0008304711044362367,
    -0.0004358832423481118,
    -0.0013860640310536798,
    0.00015899146408671072,
    0.0008988592362653147,
    -0.000820813376730456,
    0.000416544954966902,
    -7.235344575051705e-05,
    -0.0001671463089554237,
    0.010739204788580814,
    0.0006240153682517402,
    0.0007925898375551466,
    -0.0005082737655022207,
    0.00034364969213629415,
    -0.0006623178314253408,
    -0.000640812338423391,
    -0.0001429529838312682,
    0.0004339985550132486,
    -0.00045223748872968983,
    0.0005789821313868515,
    -0.0006988476422542522,
    -0.00022339893412359757,
    0.0003783824093208654,
    0.0004300122177198773,
    0.0003292276556183804,
    0.00042371211056213554,
    -0.0011506619316863365,
    0.0009861014470613494,
    -0.0006132915691661189,
    -0.00027850825078079566,
    0.00023469020096533733,
    5.5967956194891144e-05,
    0.0001700898060763567,
    -0.0005671396048436694,
    0.0006833473948286706,
    0.0013339817318922531,
    -0.0001465493357704073,
    -7.939176360771683e-06,
    0.00073236584950509,
    -0.0011919582159569675,
    -0.0012372368692492586,
    -0.0005840907321204014,
    -0.0016886693795741259,
    0.0032742356612143197,
    -0.0007127373634816525,
    -0.000803914795555416,
    -0.0005178028989798467,
    -1.5028978572750873e-06,
    0.0009811793732041885,
    5.3556845148072796e-05,
    0.000210959692928947,
    0.0013747896278260008,
    -0.0005668472049864537,
    -0.0002241887095342232,
    -0.0004035211149466811,
    -0.0009638659839852348,
    -0.00094294495318481,
    -3.841972216145351e-05,
    0.00044139989047953243,
    -0.0007743328356917267,
    -0.001064276667993136,
    -0.00044102021884295795,
    -0.00025776565676904895,
    -0.0005800639060526969,
    -0.0012243899046398,
    -0.0007179951745135416,
    -0.0005361596497144294,
    0.0002942696484466989,
    -0.0005348003244123323,
    -0.00032201356930361413,
    -0.0016759420512431067,
    -6.296504083724841e-05,
    -0.0009075963532374498,
    -0.0013951470121067455,
    -0.0007285160230567911,
    -0.0007067493123771307,
    -0.0005164483276918208,
    0.0005575853348540605,
    -0.0016673268363862626,
    -0.0012521752618839255
  ],
  "weights": [
    1.0,
    1.0,
    1.0,
    1.0,
    1.0,
    1.0,
    1.0,
    1.0,
    1.0,
    1.0,
    1.0,
    1.0,
    1.0,
    1.0,
    1.0,
    1.0,
    1.0,
    1.0,
    1.0,
    1.0,
    1.0,
    1.0,
    1.0,
    1.0,
    1.0,
    1.0,
    1.0,
    1.0,
    1.0,
    1.0,
    1.0,
    1.0,
    1.0,
    1.0,
    1.0,
    1.0,
    1.0,
    1.0,
    1.0,
    1.0,
    1.0,
    1.0,
    1.0,
    1.0,
    1.0,
    1.0,
    1.0,
    1.0,
    1.0,
    1.0,
    1.0,
    1.0,
    1.0,
    1.0,
    1.0,
    1.0,
    1.0,
    1.0,
    1.0,
    1.0,
    1.0,
    1.0,
    1.0,
    1.0,
    1.0,
    1.0,
    1.0,
    1.0,
    1.0,
    1.0,
    1.0,
    1.0,
    1.0,
    1.0,
    1.0,
    1.0,
    1.0,
    1.0,
    1.0,
    1.0,
    1.0,
    1.0,
    1.0,
    1.0,
    1.0,
    1.0,
    1.0,
    1.0,
    1.0,
    1.0,
    1.0,
    1.0,
    1.0,
    1.0,
    1.0,
    1.0,
    1.0,
    1.0,
    1.0,
    1.0,
    1.0,
    1.0,
    1.0,
    1.0,
    1.0,
    1.0,
    1.0,
    1.0,
    1.0,
    1.0,
    1.0,
    1.0,
    1.0,
    1.0,
    1.0,
    1.0,
    1.0,
    1.0,
    1.0,
    1.0,
    1.0,
    1.0,
    1.0,
    1.0,
    1.0,
    1.0,
    1.0,
    1.0,
    1.0,
    1.0,
    1.0,
    1.0,
    1.0,
    1.0,
    1.0,
    1.0,
    1.0,
    1.0,
    1.0,
    1.0,
    1.0,
    1.0,
    1.0,
    1.0,
    1.0,
    1.0,
    1.0,
    1.0,
    1.0,
    1.0,
    1.0,
    1.0,
    1.0,
    1.0,
    1.0,
    1.0,
    1.0,
    1.0,
    1.0,
    1.0,
    1.0,
    1.0,
    1.0,
    1.0,
    1.0,
    1.0,
    1.0,
    1.0,
    1.0,
    1.0,
    1.0,
    1.0,
    1.0,
    1.0,
    1.0,
    1.0,
    1.0,
    1.0,
    1.0,
    1.0,
    1.0,
    1.0,
    1.0,
    1.0,
    1.0,
    1.0,
    1.0,
    1.0,
    1.0,
    1.0,
    1.0,
    1.0,
    1.0,
    1.0,
    1.0,
    1.0,
    1.0,
    1.0,
    1.0,
    1.0,
    1.0,
    1.0,
    1.0,
    1.0,
    1.0,
    1.0,
    1.0,
    1.0,
    1.0,
    1.0,
    1.0,
    1.0,
    1.0,
    1.0,
    1.0,
    1.0,
    1.0,
    1.0,
    1.0,
    1.0,
    1.0,
    1.0,
    1.0,
    1.0,
    1.0,
    1.0,
    1.0,
    1.0,
    1.0,
    1.0,
    1.0,
    1.0,
    1.0,
    1.0,
    1.0,
    1.0,
    1.0,
    1.0,
    1.0,
    1.0,
    1.0,
    1.0,
    1.0,
    1.0,
    1.0,
    1.0,
    1.0,
    1.0,
    1.0,
    1.0,
    1.0,
    1.0
  ]
}