{
  "test": "wls",
  "method": "statsmodels",
  "dataset": "synthetic_collinear",
  "formula": "x1 ~ x2 + x3 + y",
  "n": 100,
  "k": 3,
  "df_residual": 96,
  "df_model": 3,
  "variable_names": [
    "Intercept",
    "x2",
    "x3",
    "y"
  ],
  "coefficients": [
    -3.3306690738754696e-15,
    -0.5000000000000014,
    0.5000000000000006,
    2.7755575615628914e-16
  ],
  "std_errors": [
    2.970301180314795e-15,
    7.638523451085922e-16,
    4.628869250820446e-15,
    1.8546221749699035e-15
  ],
  "t_stats": [
    -1.1213236879643573,
    -654576768928973.5,
    108017741030679.97,
    0.14965622642832535
  ],
  "p_values": [
    0.2649471783895167,
    0.0,
    0.0,
    0.8813498078677942
  ],
  "r_squared": 1.0,
  "adj_r_squared": 1.0,
  "f_statistic": 2.581312635611427e+30,
  "f_p_value": 0.0,
  "mse": 9.579178320331081e-29,
  "rmse": 9.787327684476024e-15,
  "mae": 7.258915690755429e-15,
  "residual_std_error": 9.787327684476024e-15,
  "log_likelihood": 3085.916040347715,
  "aic": -6163.83208069543,
  "bic": -6153.4113999514775,
  "conf_int_lower": [
    -9.226670317296973e-15,
    -0.500000000000003,
    0.49999999999999134,
    -3.403840164960627e-15
  ],
  "conf_int_upper": [
    2.565332169546035e-15,
    -0.49999999999999994,
    0.5000000000000098,
    3.958951677273205e-15
  ],
  "fitted_values": [
    8.623637087467468,
    9.495206236576442,
    1.47073480929038,
    9.265876251614966,
    4.92116293079539,
    2.582443882989586,
    4.591357562382621,
    9.800325752854793,
    4.926180939928706,
    3.2875161028750863,
    6.334008543167269,
    2.4014561877819336,
    0.7586332810866372,
    1.288797219106492,
    1.280458389577724,
    1.5190269351229442,
    1.3882717264941018,
    6.40874744803216,
    1.8188008439914494,
    3.4566728332386374,
    8.967884099060136,
    4.73961640262873,
    6.675577385210285,
    1.7231987120162988,
    1.9228901880867093,
    0.4086861626647862,
    1.6893506307216464,
    2.7859033903195902,
    1.7701048427674693,
    0.8870253375705551,
    1.2063587110060079,
    4.607787680327264,
    2.063337184057927,
    3.6426986104807604,
    5.034172708548578,
    6.9039482862936685,
    0.3931213984109865,
    7.994103989090444,
    6.279003894909091,
    0.8175903194887177,
    8.735786241067792,
    9.208724005318151,
    0.6107795985486355,
    2.76877648147204,
    8.062012797930631,
    7.482596903836599,
    1.8452101935637737,
    2.093493233367105,
    3.7047210279138256,
    4.84522985191022,
    6.182547715302972,
    3.689136395697729,
    4.625347161331488,
    7.47470938133758,
    0.36683202890597666,
    2.52436944344021,
    7.13349585884554,
    8.95206837687201,
    5.11677442115667,
    5.321134852653168,
    1.0717201133977599,
    4.474123668234554,
    5.326172664550241,
    2.4247050363472993,
    2.692432309493813,
    3.7728416310462327,
    0.20071197777726058,
    3.2207916558317873,
    2.114480069965447,
    3.2749735217791516,
    1.1976213181925113,
    8.905272807398967,
    5.935924535540499,
    6.791023191444909,
    7.891712386073397,
    4.9844219892905794,
    0.8692028808742358,
    5.371065418185488,
    5.868411180208802,
    7.4543947418433145,
    4.316595462296801,
    1.2758030279556372,
    2.837759057987248,
    3.630822963986356,
    6.4591724133160255,
    5.70778304668913,
    3.5609672589784678,
    9.865152487929816,
    6.057748193568884,
    2.3722679173599475,
    1.0178247262040372,
    1.5285913918433203,
    2.459577283845084,
    1.606813732595557,
    1.865670240513059,
    2.8509516869384752,
    1.7337359529475496,
    8.967654246264269,
    0.8023374566164212,
    5.2451138957025565
  ],
  "residuals": [
    -1.5987211554602254e-14,
    -1.9539925233402755e-14,
    -6.661338147750939e-16,
    -2.1316282072803006e-14,
    -7.993605777301127e-15,
    -2.220446049250313e-15,
    -7.993605777301127e-15,
    -2.1316282072803006e-14,
    -9.769962616701378e-15,
    -4.440892098500626e-15,
    -1.1546319456101628e-14,
    -2.6645352591003757e-15,
    1.9984014443252818e-15,
    4.440892098500626e-16,
    4.440892098500626e-16,
    -6.661338147750939e-16,
    -4.440892098500626e-16,
    -1.3322676295501878e-14,
    -8.881784197001252e-16,
    -5.329070518200751e-15,
    -1.7763568394002505e-14,
    -7.105427357601002e-15,
    -1.3322676295501878e-14,
    -4.440892098500626e-16,
    -1.3322676295501878e-15,
    2.3869795029440866e-15,
    -6.661338147750939e-16,
    -3.9968028886505635e-15,
    -1.1102230246251565e-15,
    9.992007221626409e-16,
    2.220446049250313e-16,
    -6.217248937900877e-15,
    -1.7763568394002505e-15,
    -5.773159728050814e-15,
    -8.881784197001252e-15,
    -1.509903313490213e-14,
    2.831068712794149e-15,
    -1.7763568394002505e-14,
    -1.3322676295501878e-14,
    1.3322676295501878e-15,
    -1.9539925233402755e-14,
    -1.9539925233402755e-14,
    1.9984014443252818e-15,
    -2.6645352591003757e-15,
    -1.7763568394002505e-14,
    -1.5987211554602254e-14,
    -8.881784197001252e-16,
    -1.7763568394002505e-15,
    -5.773159728050814e-15,
    -7.105427357601002e-15,
    -1.1546319456101628e-14,
    -5.329070518200751e-15,
    -8.881784197001252e-15,
    -1.509903313490213e-14,
    2.3314683517128287e-15,
    -2.220446049250313e-15,
    -1.5987211554602254e-14,
    -1.5987211554602254e-14,
    -8.881784197001252e-15,
    -1.1546319456101628e-14,
    4.440892098500626e-16,
    -7.993605777301127e-15,
    -9.769962616701378e-15,
    -2.6645352591003757e-15,
    -3.552713678800501e-15,
    -6.217248937900877e-15,
    3.0253577421035516e-15,
    -4.440892098500626e-15,
    -8.881784197001252e-16,
    -5.329070518200751e-15,
    8.881784197001252e-16,
    -1.7763568394002505e-14,
    -1.2434497875801753e-14,
    -1.2434497875801753e-14,
    -1.4210854715202004e-14,
    -7.105427357601002e-15,
    1.1102230246251565e-15,
    -9.769962616701378e-15,
    -1.0658141036401503e-14,
    -1.4210854715202004e-14,
    -7.105427357601002e-15,
    4.440892098500626e-16,
    -3.552713678800501e-15,
    -4.884981308350689e-15,
    -1.3322676295501878e-14,
    -1.0658141036401503e-14,
    -5.329070518200751e-15,
    -1.9539925233402755e-14,
    -1.2434497875801753e-14,
    -2.6645352591003757e-15,
    2.220446049250313e-16,
    2.220446049250313e-16,
    -2.6645352591003757e-15,
    -2.220446049250313e-16,
    -1.3322676295501878e-15,
    -4.440892098500626e-15,
    -1.3322676295501878e-15,
    -1.7763568394002505e-14,
    8.881784197001252e-16,
    -9.769962616701378e-15
  ],
  "weights": [
    1.0,
    1.0,
    1.0,
    1.0,
    1.0,
    1.0,
    1.0,
    1.0,
    1.0,
    1.0,
    1.0,
    1.0,
    1.0,
    1.0,
    1.0,
    1.0,
    1.0,
    1.0,
    1.0,
    1.0,
    1.0,
    1.0,
    1.0,
    1.0,
    1.0,
    1.0,
    1.0,
    1.0,
    1.0,
    1.0,
    1.0,
    1.0,
    1.0,
    1.0,
    1.0,
    1.0,
    1.0,
    1.0,
    1.0,
    1.0,
    1.0,
    1.0,
    1.0,
    1.0,
    1.0,
    1.0,
    1.0,
    1.0,
    1.0,
    1.0,
    1.0,
    1.0,
    1.0,
    1.0,
    1.0,
    1.0,
    1.0,
    1.0,
    1.0,
    1.0,
    1.0,
    1.0,
    1.0,
    1.0,
    1.0,
    1.0,
    1.0,
    1.0,
    1.0,
    1.0,
    1.0,
    1.0,
    1.0,
    1.0,
    1.0,
    1.0,
    1.0,
    1.0,
    1.0,
    1.0,
    1.0,
    1.0,
    1.0,
    1.0,
    1.0,
    1.0,
    1.0,
    1.0,
    1.0,
    1.0,
    1.0,
    1.0,
    1.0,
    1.0,
    1.0,
    1.0,
    1.0,
    1.0,
    1.0,
    1.0
  ]
}